digraph Tree {
node [shape=box, style="filled, rounded", color="black", fontname="helvetica"] ;
edge [fontname="helvetica"] ;
0 [label="x[2] <= 35.5\nentropy = 4.458\nsamples = 1760\nvalue = [77, 79, 80, 74, 73, 83, 83, 86, 77, 80, 89, 79\n81, 76, 81, 83, 86, 77, 77, 77, 81, 81]", fillcolor="#ffffff"] ;
1 [label="x[4] <= 74.917\nentropy = 3.663\nsamples = 983\nvalue = [0, 0, 80, 0, 73, 83, 83, 0, 9, 80, 89, 79, 81\n76, 81, 0, 86, 0, 77, 3, 3, 0]", fillcolor="#feffff"] ;
0 -> 1 [labeldistance=2.5, labelangle=45, headlabel="True"] ;
2 [label="x[0] <= 59.5\nentropy = 3.01\nsamples = 646\nvalue = [0, 0, 80, 0, 0, 83, 0, 0, 1, 80, 89, 79, 81\n76, 0, 0, 0, 0, 77, 0, 0, 0]", fillcolor="#fdfeff"] ;
1 -> 2 ;
3 [label="x[6] <= 75.161\nentropy = 2.583\nsamples = 482\nvalue = [0, 0, 79, 0, 0, 0, 0, 0, 0, 80, 89, 0, 81\n76, 0, 0, 0, 0, 77, 0, 0, 0]", fillcolor="#fbfefe"] ;
2 -> 3 ;
4 [label="x[6] <= 59.733\nentropy = 1.78\nsamples = 256\nvalue = [0, 0, 79, 0, 0, 0, 0, 0, 0, 12, 89, 0, 0, 76\n0, 0, 0, 0, 0, 0, 0, 0]", fillcolor="#f4fcfe"] ;
3 -> 4 ;
5 [label="entropy = 0.95\nsamples = 141\nvalue = [0, 0, 0, 0, 0, 0, 0, 0, 0, 0, 89, 0, 0, 52\n0, 0, 0, 0, 0, 0, 0, 0]", fillcolor="#adebf4"] ;
4 -> 5 ;
6 [label="entropy = 1.184\nsamples = 115\nvalue = [0, 0, 79, 0, 0, 0, 0, 0, 0, 12, 0, 0, 0, 24\n0, 0, 0, 0, 0, 0, 0, 0]", fillcolor="#efea87"] ;
4 -> 6 ;
7 [label="x[1] <= 47.5\nentropy = 1.581\nsamples = 226\nvalue = [0, 0, 0, 0, 0, 0, 0, 0, 0, 68, 0, 0, 81, 0\n0, 0, 0, 0, 77, 0, 0, 0]", fillcolor="#fafbfe"] ;
3 -> 7 ;
8 [label="entropy = 0.0\nsamples = 81\nvalue = [0, 0, 0, 0, 0, 0, 0, 0, 0, 0, 0, 0, 81, 0\n0, 0, 0, 0, 0, 0, 0, 0]", fillcolor="#396fe5"] ;
7 -> 8 ;
9 [label="entropy = 0.997\nsamples = 145\nvalue = [0, 0, 0, 0, 0, 0, 0, 0, 0, 68, 0, 0, 0, 0\n0, 0, 0, 0, 77, 0, 0, 0]", fillcolor="#fce8f6"] ;
7 -> 9 ;
10 [label="x[6] <= 112.454\nentropy = 1.095\nsamples = 164\nvalue = [0, 0, 1, 0, 0, 83, 0, 0, 1, 0, 0, 79, 0, 0\n0, 0, 0, 0, 0, 0, 0, 0]", fillcolor="#f8fef6"] ;
2 -> 10 ;
11 [label="x[3] <= 29.209\nentropy = 0.097\nsamples = 80\nvalue = [0, 0, 1, 0, 0, 0, 0, 0, 0, 0, 0, 79, 0, 0\n0, 0, 0, 0, 0, 0, 0, 0]", fillcolor="#3ca1e5"] ;
10 -> 11 ;
12 [label="entropy = 0.0\nsamples = 79\nvalue = [0, 0, 0, 0, 0, 0, 0, 0, 0, 0, 0, 79, 0, 0\n0, 0, 0, 0, 0, 0, 0, 0]", fillcolor="#39a0e5"] ;
11 -> 12 ;
13 [label="entropy = 0.0\nsamples = 1\nvalue = [0, 0, 1, 0, 0, 0, 0, 0, 0, 0, 0, 0, 0, 0\n0, 0, 0, 0, 0, 0, 0, 0]", fillcolor="#e5dc39"] ;
11 -> 13 ;
14 [label="x[1] <= 47.0\nentropy = 0.093\nsamples = 84\nvalue = [0, 0, 0, 0, 0, 83, 0, 0, 1, 0, 0, 0, 0, 0\n0, 0, 0, 0, 0, 0, 0, 0]", fillcolor="#63e53b"] ;
10 -> 14 ;
15 [label="entropy = 0.0\nsamples = 83\nvalue = [0, 0, 0, 0, 0, 83, 0, 0, 0, 0, 0, 0, 0, 0\n0, 0, 0, 0, 0, 0, 0, 0]", fillcolor="#61e539"] ;
14 -> 15 ;
16 [label="entropy = 0.0\nsamples = 1\nvalue = [0, 0, 0, 0, 0, 0, 0, 0, 1, 0, 0, 0, 0, 0\n0, 0, 0, 0, 0, 0, 0, 0]", fillcolor="#39e59d"] ;
14 -> 16 ;
17 [label="x[6] <= 100.052\nentropy = 2.222\nsamples = 337\nvalue = [0, 0, 0, 0, 73, 0, 83, 0, 8, 0, 0, 0, 0, 0\n81, 0, 86, 0, 0, 3, 3, 0]", fillcolor="#fefdff"] ;
1 -> 17 ;
18 [label="x[3] <= 26.531\nentropy = 1.0\nsamples = 164\nvalue = [0, 0, 0, 0, 0, 0, 83, 0, 0, 0, 0, 0, 0, 0\n81, 0, 0, 0, 0, 0, 0, 0]", fillcolor="#fafefa"] ;
17 -> 18 ;
19 [label="entropy = 0.0\nsamples = 83\nvalue = [0, 0, 0, 0, 0, 0, 83, 0, 0, 0, 0, 0, 0, 0\n0, 0, 0, 0, 0, 0, 0, 0]", fillcolor="#39e541"] ;
18 -> 19 ;
20 [label="entropy = 0.0\nsamples = 81\nvalue = [0, 0, 0, 0, 0, 0, 0, 0, 0, 0, 0, 0, 0, 0\n81, 0, 0, 0, 0, 0, 0, 0]", fillcolor="#6139e5"] ;
18 -> 20 ;
21 [label="x[2] <= 20.0\nentropy = 1.434\nsamples = 173\nvalue = [0, 0, 0, 0, 73, 0, 0, 0, 8, 0, 0, 0, 0, 0\n0, 0, 86, 0, 0, 3, 3, 0]", fillcolor="#f6e5fc"] ;
17 -> 21 ;
22 [label="entropy = 0.0\nsamples = 86\nvalue = [0, 0, 0, 0, 0, 0, 0, 0, 0, 0, 0, 0, 0, 0\n0, 0, 86, 0, 0, 0, 0, 0]", fillcolor="#bd39e5"] ;
21 -> 22 ;
23 [label="x[4] <= 90.068\nentropy = 0.864\nsamples = 87\nvalue = [0, 0, 0, 0, 73, 0, 0, 0, 8, 0, 0, 0, 0, 0\n0, 0, 0, 0, 0, 3, 3, 0]", fillcolor="#a3ea5c"] ;
21 -> 23 ;
24 [label="entropy = 1.335\nsamples = 13\nvalue = [0, 0, 0, 0, 0, 0, 0, 0, 8, 0, 0, 0, 0, 0\n0, 0, 0, 0, 0, 2, 3, 0]", fillcolor="#9cf2ce"] ;
23 -> 24 ;
25 [label="entropy = 0.103\nsamples = 74\nvalue = [0, 0, 0, 0, 73, 0, 0, 0, 0, 0, 0, 0, 0, 0\n0, 0, 0, 0, 0, 1, 0, 0]", fillcolor="#91e53c"] ;
23 -> 25 ;
26 [label="x[0] <= 59.5\nentropy = 3.319\nsamples = 777\nvalue = [77, 79, 0, 74, 0, 0, 0, 86, 68, 0, 0, 0, 0\n0, 0, 83, 0, 77, 0, 74, 78, 81]", fillcolor="#fefffe"] ;
0 -> 26 [labeldistance=2.5, labelangle=-45, headlabel="False"] ;
27 [label="x[2] <= 140.0\nentropy = 2.308\nsamples = 365\nvalue = [77, 0, 0, 73, 0, 0, 0, 86, 0, 0, 0, 0, 0, 0\n0, 0, 0, 55, 0, 74, 0, 0]", fillcolor="#f9fefa"] ;
26 -> 27 ;
28 [label="x[1] <= 38.0\nentropy = 1.572\nsamples = 202\nvalue = [0, 0, 0, 73, 0, 0, 0, 0, 0, 0, 0, 0, 0, 0\n0, 0, 0, 55, 0, 74, 0, 0]", fillcolor="#fffdfe"] ;
27 -> 28 ;
29 [label="entropy = 0.0\nsamples = 74\nvalue = [0, 0, 0, 0, 0, 0, 0, 0, 0, 0, 0, 0, 0, 0\n0, 0, 0, 0, 0, 74, 0, 0]", fillcolor="#e53981"] ;
28 -> 29 ;
30 [label="x[4] <= 55.004\nentropy = 0.986\nsamples = 128\nvalue = [0, 0, 0, 73, 0, 0, 0, 0, 0, 0, 0, 0, 0, 0\n0, 0, 0, 55, 0, 0, 0, 0]", fillcolor="#eff9ce"] ;
28 -> 30 ;
31 [label="entropy = 0.0\nsamples = 73\nvalue = [0, 0, 0, 73, 0, 0, 0, 0, 0, 0, 0, 0, 0, 0\n0, 0, 0, 0, 0, 0, 0, 0]", fillcolor="#bde539"] ;
30 -> 31 ;
32 [label="entropy = 0.0\nsamples = 55\nvalue = [0, 0, 0, 0, 0, 0, 0, 0, 0, 0, 0, 0, 0, 0\n0, 0, 0, 55, 0, 0, 0, 0]", fillcolor="#e539dc"] ;
30 -> 32 ;
33 [label="x[4] <= 87.005\nentropy = 0.998\nsamples = 163\nvalue = [77, 0, 0, 0, 0, 0, 0, 86, 0, 0, 0, 0, 0, 0\n0, 0, 0, 0, 0, 0, 0, 0]", fillcolor="#eafcf0"] ;
27 -> 33 ;
34 [label="entropy = 0.0\nsamples = 86\nvalue = [0, 0, 0, 0, 0, 0, 0, 86, 0, 0, 0, 0, 0, 0\n0, 0, 0, 0, 0, 0, 0, 0]", fillcolor="#39e56f"] ;
33 -> 34 ;
35 [label="entropy = 0.0\nsamples = 77\nvalue = [77, 0, 0, 0, 0, 0, 0, 0, 0, 0, 0, 0, 0, 0\n0, 0, 0, 0, 0, 0, 0, 0]", fillcolor="#e58139"] ;
33 -> 35 ;
36 [label="x[1] <= 32.5\nentropy = 2.514\nsamples = 412\nvalue = [0, 79, 0, 1, 0, 0, 0, 0, 68, 0, 0, 0, 0, 0\n0, 83, 0, 22, 0, 0, 78, 81]", fillcolor="#fefeff"] ;
26 -> 36 ;
37 [label="x[3] <= 27.005\nentropy = 1.0\nsamples = 164\nvalue = [0, 0, 0, 0, 0, 0, 0, 0, 0, 0, 0, 0, 0, 0\n0, 83, 0, 0, 0, 0, 0, 81]", fillcolor="#fcfafe"] ;
36 -> 37 ;
38 [label="entropy = 0.0\nsamples = 81\nvalue = [0, 0, 0, 0, 0, 0, 0, 0, 0, 0, 0, 0, 0, 0\n0, 0, 0, 0, 0, 0, 0, 81]", fillcolor="#e55039"] ;
37 -> 38 ;
39 [label="entropy = 0.0\nsamples = 83\nvalue = [0, 0, 0, 0, 0, 0, 0, 0, 0, 0, 0, 0, 0, 0\n0, 83, 0, 0, 0, 0, 0, 0]", fillcolor="#8f39e5"] ;
37 -> 39 ;
40 [label="x[1] <= 69.5\nentropy = 1.905\nsamples = 248\nvalue = [0, 79, 0, 1, 0, 0, 0, 0, 68, 0, 0, 0, 0, 0\n0, 0, 0, 22, 0, 0, 78, 0]", fillcolor="#fffffe"] ;
36 -> 40 ;
41 [label="x[6] <= 199.782\nentropy = 1.461\nsamples = 168\nvalue = [0, 0, 0, 1, 0, 0, 0, 0, 68, 0, 0, 0, 0, 0\n0, 0, 0, 21, 0, 0, 78, 0]", fillcolor="#fcebee"] ;
40 -> 41 ;
42 [label="entropy = 1.289\nsamples = 101\nvalue = [0, 0, 0, 1, 0, 0, 0, 0, 68, 0, 0, 0, 0, 0\n0, 0, 0, 18, 0, 0, 14, 0]", fillcolor="#88efc4"] ;
41 -> 42 ;
43 [label="entropy = 0.264\nsamples = 67\nvalue = [0, 0, 0, 0, 0, 0, 0, 0, 0, 0, 0, 0, 0, 0\n0, 0, 0, 3, 0, 0, 64, 0]", fillcolor="#e64258"] ;
41 -> 43 ;
44 [label="x[4] <= 88.869\nentropy = 0.097\nsamples = 80\nvalue = [0, 79, 0, 0, 0, 0, 0, 0, 0, 0, 0, 0, 0, 0\n0, 0, 0, 1, 0, 0, 0, 0]", fillcolor="#e5af3c"] ;
40 -> 44 ;
45 [label="entropy = 0.0\nsamples = 79\nvalue = [0, 79, 0, 0, 0, 0, 0, 0, 0, 0, 0, 0, 0, 0\n0, 0, 0, 0, 0, 0, 0, 0]", fillcolor="#e5ae39"] ;
44 -> 45 ;
46 [label="entropy = 0.0\nsamples = 1\nvalue = [0, 0, 0, 0, 0, 0, 0, 0, 0, 0, 0, 0, 0, 0\n0, 0, 0, 1, 0, 0, 0, 0]", fillcolor="#e539dc"] ;
44 -> 46 ;
}